{"learner":{"attributes":{"best_iteration":"9","best_ntree_limit":"10"},"feature_names":[],"feature_types":[],"gradient_booster":{"model":{"gbtree_model_param":{"num_parallel_tree":"1","num_trees":"10","size_leaf_vector":"0"},"tree_info":[0,0,0,0,0,0,0,0,0,0],"trees":[{"base_weights":[1.8983823E2,3.1546333E1,2.5343416E2,5.641137E0,1.8733532E1,5.1655727E1,9.4310555E1],"categories":[],"categories_nodes":[],"categories_segments":[],"categories_sizes":[],"default_left":[1,0,0,0,0,0,0],"id":0,"left_children":[1,3,5,-1,-1,-1,-1],"loss_changes":[1.2161811E8,1.362703E6,4.2617024E7,0E0,0E0,0E0,0E0],"parents":[2147483647,0,0,1,1,2,2],"right_children":[2,4,6,-1,-1,-1,-1],"split_conditions":[7E0,6E0,4.8E-1,5.641137E0,1.8733532E1,5.1655727E1,9.4310555E1],"split_indices":[3,3,8,0,0,0,0],"split_type":[0,0,0,0,0,0,0],"sum_hessian":[1.2081E4,3.463E3,8.618E3,2.453E3,1.01E3,3.695E3,4.923E3],"tree_param":{"num_deleted":"0","num_feature":"12","num_nodes":"7","size_leaf_vector":"0"}},{"base_weights":[1.3290086E2,2.208947E1,1.7742084E2,4.8614254E0,1.6937588E1,7.142358E1,3.4880924E1],"categories":[],"categories_nodes":[],"categories_segments":[],"categories_sizes":[],"default_left":[1,1,0,0,0,0,0],"id":1,"left_children":[1,3,5,-1,-1,-1,-1],"loss_changes":[5.9600464E7,6.99689E5,3.1942688E7,0E0,0E0,0E0,0E0],"parents":[2147483647,0,0,1,1,2,2],"right_children":[2,4,6,-1,-1,-1,-1],"split_conditions":[7E0,6E0,2.00001E0,4.8614254E0,1.6937588E1,7.142358E1,3.4880924E1],"split_indices":[3,3,1,0,0,0,0],"split_type":[0,0,0,0,0,0,0],"sum_hessian":[1.2081E4,3.463E3,8.618E3,2.958E3,5.05E2,4.325E3,4.293E3],"tree_param":{"num_deleted":"0","num_feature":"12","num_nodes":"7","size_leaf_vector":"0"}},{"base_weights":[9.30412E1,6.2926334E1,1.746882E2,4.144572E0,2.649578E1,3.715252E1,7.4767715E1],"categories":[],"categories_nodes":[],"categories_segments":[],"categories_sizes":[],"default_left":[1,1,1,0,0,0,0],"id":2,"left_children":[1,3,5,-1,-1,-1,-1],"loss_changes":[2.9696096E7,1.1007956E7,1.2305496E7,0E0,0E0,0E0,0E0],"parents":[2147483647,0,0,1,1,2,2],"right_children":[2,4,6,-1,-1,-1,-1],"split_conditions":[6.212E-1,7E0,1.6E1,4.144572E0,2.649578E1,3.715252E1,7.4767715E1],"split_indices":[9,3,3,0,0,0,0],"split_type":[0,0,0,0,0,0,0],"sum_hessian":[1.2081E4,8.827E3,3.254E3,3.009E3,5.818E3,1.936E3,1.318E3],"tree_param":{"num_deleted":"0","num_feature":"12","num_nodes":"7","size_leaf_vector":"0"}},{"base_weights":[6.514064E1,8.27956E1,-2.300015E1,1.5809363E1,5.150194E1,2.6452765E0,-1.6419634E1],"categories":[],"categories_nodes":[],"categories_segments":[],"categories_sizes":[],"default_left":[0,0,1,0,0,0,0],"id":3,"left_children":[1,3,5,-1,-1,-1,-1],"loss_changes":[1.8802972E7,2.6917616E7,2.0369248E6,0E0,0E0,0E0,0E0],"parents":[2147483647,0,0,1,1,2,2],"right_children":[2,4,6,-1,-1,-1,-1],"split_conditions":[2.1E1,1.6E1,2.2E1,1.5809363E1,5.150194E1,2.6452765E0,-1.6419634E1],"split_indices":[3,3,3,0,0,0,0],"split_type":[0,0,0,0,0,0,0],"sum_hessian":[1.2081E4,1.0065E4,2.016E3,7.52E3,2.545E3,1.007E3,1.009E3],"tree_param":{"num_deleted":"0","num_feature":"12","num_nodes":"7","size_leaf_vector":"0"}},{"base_weights":[4.560288E1,-6.621003E0,6.897209E1,-7.2489204E0,1.032784E1,-9.188242E-1,2.8311993E1],"categories":[],"categories_nodes":[],"categories_segments":[],"categories_sizes":[],"default_left":[0,1,1,0,0,0,0],"id":4,"left_children":[1,3,5,-1,-1,-1,-1],"loss_changes":[1.4745706E7,2.690944E6,1.5273392E7,0E0,0E0,0E0,0E0],"parents":[2147483647,0,0,1,1,2,2],"right_children":[2,4,6,-1,-1,-1,-1],"split_conditions":[3.8E-1,3E0,7E0,-7.2489204E0,1.032784E1,-9.188242E-1,2.8311993E1],"split_indices":[8,0,3,0,0,0,0],"split_type":[0,0,0,0,0,0,0],"sum_hessian":[1.2081E4,3.735E3,8.346E3,2.617E3,1.118E3,2.176E3,6.17E3],"tree_param":{"num_deleted":"0","num_feature":"12","num_nodes":"7","size_leaf_vector":"0"}},{"base_weights":[3.1924536E1,6.3447853E1,1.1815214E-1,2.5211647E1,-4.439745E0,3.1822782E0,-1.5305398E1],"categories":[],"categories_nodes":[],"categories_segments":[],"categories_sizes":[],"default_left":[0,0,1,0,0,0,0],"id":5,"left_children":[1,3,5,-1,-1,-1,-1],"loss_changes":[1.2113923E7,9.777888E6,3.2269245E6,0E0,0E0,0E0,0E0],"parents":[2147483647,0,0,1,1,2,2],"right_children":[2,4,6,-1,-1,-1,-1],"split_conditions":[2.00001E0,2E1,2E1,2.5211647E1,-4.439745E0,3.1822782E0,-1.5305398E1],"split_indices":[1,3,3,0,0,0,0],"split_type":[0,0,0,0,0,0,0],"sum_hessian":[1.2081E4,6.067E3,6.014E3,4.803E3,1.264E3,4.991E3,1.023E3],"tree_param":{"num_deleted":"0","num_feature":"12","num_nodes":"7","size_leaf_vector":"0"}},{"base_weights":[2.2347889E1,4.9361615E0,6.2177948E1,3.6679533E0,-1.7044708E1,-8.22363E0,2.3775478E1],"categories":[],"categories_nodes":[],"categories_segments":[],"categories_sizes":[],"default_left":[1,1,1,0,0,0,0],"id":6,"left_children":[1,3,5,-1,-1,-1,-1],"loss_changes":[8.378682E6,3.7859132E6,5.62356E6,0E0,0E0,0E0,0E0],"parents":[2147483647,0,0,1,1,2,2],"right_children":[2,4,6,-1,-1,-1,-1],"split_conditions":[6.061E-1,2E0,7E0,3.6679533E0,-1.7044708E1,-8.22363E0,2.3775478E1],"split_indices":[9,7,3,0,0,0,0],"split_type":[0,0,0,0,0,0,0],"sum_hessian":[1.2081E4,8.407E3,3.674E3,7.52E3,8.87E2,5.88E2,3.086E3],"tree_param":{"num_deleted":"0","num_feature":"12","num_nodes":"7","size_leaf_vector":"0"}},{"base_weights":[1.56437025E1,2.6060678E1,-3.5677414E1,2.2815914E0,3.8507946E1,-7.01203E0,-2.22026E1],"categories":[],"categories_nodes":[],"categories_segments":[],"categories_sizes":[],"default_left":[1,1,0,0,0,0,0],"id":7,"left_children":[1,3,5,-1,-1,-1,-1],"loss_changes":[6.4600985E6,1.8961784E7,9.5991775E5,0E0,0E0,0E0,0E0],"parents":[2147483647,0,0,1,1,2,2],"right_children":[2,4,6,-1,-1,-1,-1],"split_conditions":[2E1,1.7E1,2.3E1,2.2815914E0,3.8507946E1,-7.01203E0,-2.22026E1],"split_indices":[3,3,3,0,0,0,0],"split_type":[0,0,0,0,0,0,0],"sum_hessian":[1.2081E4,1.0043E4,2.038E3,8.509E3,1.534E3,1.544E3,4.94E2],"tree_param":{"num_deleted":"0","num_feature":"12","num_nodes":"7","size_leaf_vector":"0"}},{"base_weights":[1.0951552E1,2.37309E1,-2.9081621E1,-9.337394E0,1.1468117E1,-4.707792E0,-1.29522505E1],"categories":[],"categories_nodes":[],"categories_segments":[],"categories_sizes":[],"default_left":[0,0,0,0,0,0,0],"id":8,"left_children":[1,3,5,-1,-1,-1,-1],"loss_changes":[6.181815E6,7.284377E6,5.51037E5,0E0,0E0,0E0,0E0],"parents":[2147483647,0,0,1,1,2,2],"right_children":[2,4,6,-1,-1,-1,-1],"split_conditions":[6.00001E0,6E0,2.00001E0,-9.337394E0,1.1468117E1,-4.707792E0,-1.29522505E1],"split_indices":[0,3,1,0,0,0,0],"split_type":[0,0,0,0,0,0,0],"sum_hessian":[1.2081E4,9.158E3,2.923E3,1.914E3,7.244E3,1.5E3,1.423E3],"tree_param":{"num_deleted":"0","num_feature":"12","num_nodes":"7","size_leaf_vector":"0"}},{"base_weights":[7.664803E0,2.8381874E1,-1.3236086E1,-7.645628E0,1.3789931E1,-1.8700266E0,-1.1702274E1],"categories":[],"categories_nodes":[],"categories_segments":[],"categories_sizes":[],"default_left":[0,0,1,0,0,0,0],"id":9,"left_children":[1,3,5,-1,-1,-1,-1],"loss_changes":[5.231944E6,5.7489795E6,1.0852782E6,0E0,0E0,0E0,0E0],"parents":[2147483647,0,0,1,1,2,2],"right_children":[2,4,6,-1,-1,-1,-1],"split_conditions":[2.00001E0,7E0,1.9E1,-7.645628E0,1.3789931E1,-1.8700266E0,-1.1702274E1],"split_indices":[1,3,3,0,0,0,0],"split_type":[0,0,0,0,0,0,0],"sum_hessian":[1.2081E4,6.067E3,6.014E3,1.493E3,4.574E3,4.73E3,1.284E3],"tree_param":{"num_deleted":"0","num_feature":"12","num_nodes":"7","size_leaf_vector":"0"}}]},"name":"gbtree"},"learner_model_param":{"base_score":"5E-1","boost_from_average":"1","num_class":"0","num_feature":"12","num_target":"1"},"objective":{"name":"reg:squarederror","reg_loss_param":{"scale_pos_weight":"1"}}},"version":[1,7,1]}
